digraph Tree {
node [shape=box, style="filled, rounded", color="black", fontname=helvetica] ;
edge [fontname=helvetica] ;
0 [label=<petal width (cm) &le; 0.8<br/>gini = 0.666<br/>samples = 120<br/>value = [41, 38, 41]<br/>class = setosa>, fillcolor="#e5813900"] ;
1 [label=<gini = 0.0<br/>samples = 41<br/>value = [41, 0, 0]<br/>class = setosa>, fillcolor="#e58139ff"] ;
0 -> 1 [labeldistance=2.5, labelangle=45, headlabel="True"] ;
2 [label=<petal width (cm) &le; 1.75<br/>gini = 0.499<br/>samples = 79<br/>value = [0, 38, 41]<br/>class = virginica>, fillcolor="#8139e513"] ;
0 -> 2 [labeldistance=2.5, labelangle=-45, headlabel="False"] ;
3 [label=<petal length (cm) &le; 5.05<br/>gini = 0.139<br/>samples = 40<br/>value = [0, 37, 3]<br/>class = versicolor>, fillcolor="#39e581ea"] ;
2 -> 3 ;
4 [label=<gini = 0.0<br/>samples = 36<br/>value = [0, 36, 0]<br/>class = versicolor>, fillcolor="#39e581ff"] ;
3 -> 4 ;
5 [label=<sepal length (cm) &le; 6.05<br/>gini = 0.375<br/>samples = 4<br/>value = [0, 1, 3]<br/>class = virginica>, fillcolor="#8139e5aa"] ;
3 -> 5 ;
6 [label=<gini = 0.0<br/>samples = 1<br/>value = [0, 1, 0]<br/>class = versicolor>, fillcolor="#39e581ff"] ;
5 -> 6 ;
7 [label=<gini = 0.0<br/>samples = 3<br/>value = [0, 0, 3]<br/>class = virginica>, fillcolor="#8139e5ff"] ;
5 -> 7 ;
8 [label=<petal length (cm) &le; 4.85<br/>gini = 0.05<br/>samples = 39<br/>value = [0, 1, 38]<br/>class = virginica>, fillcolor="#8139e5f8"] ;
2 -> 8 ;
9 [label=<sepal length (cm) &le; 5.95<br/>gini = 0.444<br/>samples = 3<br/>value = [0, 1, 2]<br/>class = virginica>, fillcolor="#8139e57f"] ;
8 -> 9 ;
10 [label=<gini = 0.0<br/>samples = 1<br/>value = [0, 1, 0]<br/>class = versicolor>, fillcolor="#39e581ff"] ;
9 -> 10 ;
11 [label=<gini = 0.0<br/>samples = 2<br/>value = [0, 0, 2]<br/>class = virginica>, fillcolor="#8139e5ff"] ;
9 -> 11 ;
12 [label=<gini = 0.0<br/>samples = 36<br/>value = [0, 0, 36]<br/>class = virginica>, fillcolor="#8139e5ff"] ;
8 -> 12 ;
}